Language model created by QuickLM on Thu Aug  5 17:19:13 EDT 2021
Copyright (c) 1996-2010 Carnegie Mellon University and Alexander I. Rudnicky

The model is in standard ARPA format, designed by Doug Paul while he was at MITRE.

The code that was used to produce this language model is available in Open Source.
Please visit http://www.speech.cs.cmu.edu/tools/ for more information

The (fixed) discount mass is 0.5. The backoffs are computed using the ratio method.
This model based on a corpus of 41 sentences and 61 words

\data\
ngram 1=61
ngram 2=100
ngram 3=67

\1-grams:
-0.8643 </s> -0.3010
-0.8643 <s> -0.2355
-2.4771 ALHATORAH -0.2952
-2.4771 ARIALMT;} -0.2372
-2.4771 ART\ -0.2372
-2.4771 ARUKH\ -0.2372
-2.1761 COMMENTATORS -0.2981
-2.4771 CONCORDANCE\ -0.2372
-2.1761 DAF -0.2981
-2.4771 FULL -0.2996
-2.4771 GADOL\ -0.2372
-2.4771 GEDOLAH\CF2 -0.2952
-2.4771 GEDOLOT\ -0.2372
-2.4771 GEDOLOT\CF2 -0.2952
-2.4771 HAGGADAH\ -0.2372
-2.4771 HALAKHAH\ -0.2372
-2.4771 HASHAVUA\ -0.2372
-2.4771 IN -0.2996
-2.4771 LAB\ -0.2372
-2.4771 LIBRARY\ -0.2372
-2.4771 MAP\ -0.2372
-2.4771 MIKRAOT -0.2996
-2.4771 MISHNA -0.2996
-2.4771 MISHNAYOT -0.2996
-2.4771 MISHNA\ -0.2372
-2.4771 NAKH\ -0.2372
-2.4771 OPEN -0.2981
-2.4771 PARASHAH\ -0.2372
-2.4771 PARASHAT -0.2996
-2.1761 PARSHANUT -0.2937
-2.4771 POWER -0.2996
-2.4771 RAMBAM\ -0.2372
-2.4771 RASHI\ -0.2372
-2.4771 SEARCH\ -0.2372
-2.4771 SHABBAT\ -0.2372
-2.4771 SHAS -0.2996
-2.4771 SHULCHAN -0.2996
-2.4771 SIDDUR\ -0.2372
-2.4771 TALMUD\ -0.2372
-2.4771 TANAKH -0.2996
-2.4771 TANAKH\ -0.2372
-2.4771 TIMELINE} -0.2372
-2.4771 TOPICS\ -0.2372
-2.4771 TORAHCASTS\ -0.2372
-2.4771 TORAH\ -0.2372
-2.4771 TOSEFTA -0.2996
-2.4771 TUR\ -0.2372
-2.4771 YOMIT\ -0.2372
-2.1761 YOMI\ -0.2372
-1.8751 \ -0.2372
-2.4771 \CF2 -0.2996
-2.0000 \CF3 -0.2967
-2.4771 \COCOATEXTSCALING0\COCOAPLATFORM0{\FONTTBL\F0\FSWISS\FCHARSET0 -0.2996
-2.4771 \DEFTAB20 -0.2372
-2.4771 \F0\FS24 -0.2996
-2.4771 \MARGL1440\MARGR1440\VIEWW10800\VIEWH8400\VIEWKIND0 -0.2372
-2.4771 \PARD\PARDEFTAB720\PARTIGHTENFACTOR0 -0.2372
-2.4771 \PARD\TX720\TX1440\TX2160\TX2880\TX3600\TX4320\TX5040\TX5760\TX6480\TX7200\TX7920\TX8640\PARDEFTAB20\PARTIGHTENFACTOR0 -0.2372
-2.4771 {\*\EXPANDEDCOLORTBL;;\CSSRGB\C0\C0\C0;\CSSRGB\C35294\C0\C0;} -0.2372
-2.4771 {\COLORTBL;\RED255\GREEN255\BLUE255;\RED0\GREEN0\BLUE0;\RED71\GREEN0\BLUE1;} -0.2372
-2.4771 {\RTF1\ANSI\ANSICPG1252\COCOARTF2513 -0.2372

\2-grams:
-1.9138 <s> ALHATORAH 0.0000
-1.6128 <s> COMMENTATORS 0.0000
-1.9138 <s> CONCORDANCE\ 0.0000
-1.9138 <s> DAF 0.0000
-1.9138 <s> FULL 0.0000
-1.9138 <s> HAGGADAH\ 0.0000
-1.9138 <s> HALAKHAH\ 0.0000
-1.9138 <s> MIKRAOT 0.0000
-1.9138 <s> MISHNA 0.0000
-1.9138 <s> MISHNAYOT 0.0000
-1.9138 <s> MISHNA\ 0.0000
-1.9138 <s> NAKH\ 0.0000
-1.9138 <s> PARASHAH\ 0.0000
-1.6128 <s> PARSHANUT 0.0000
-1.9138 <s> POWER 0.0000
-1.9138 <s> RAMBAM\ 0.0000
-1.9138 <s> RASHI\ 0.0000
-1.9138 <s> SHABBAT\ 0.0000
-1.9138 <s> SHULCHAN 0.0000
-1.9138 <s> SIDDUR\ 0.0000
-1.9138 <s> TALMUD\ 0.0000
-1.9138 <s> TANAKH 0.0000
-1.9138 <s> TOPICS\ 0.0000
-1.9138 <s> TORAHCASTS\ 0.0000
-1.9138 <s> TORAH\ 0.0000
-1.9138 <s> TOSEFTA 0.0000
-1.9138 <s> TUR\ 0.0000
-1.4367 <s> \CF3 0.0000
-1.9138 <s> \COCOATEXTSCALING0\COCOAPLATFORM0{\FONTTBL\F0\FSWISS\FCHARSET0 0.0000
-1.9138 <s> \DEFTAB20 0.0000
-1.9138 <s> \F0\FS24 0.0000
-1.9138 <s> \MARGL1440\MARGR1440\VIEWW10800\VIEWH8400\VIEWKIND0 0.0000
-1.9138 <s> \PARD\PARDEFTAB720\PARTIGHTENFACTOR0 0.0000
-1.9138 <s> \PARD\TX720\TX1440\TX2160\TX2880\TX3600\TX4320\TX5040\TX5760\TX6480\TX7200\TX7920\TX8640\PARDEFTAB20\PARTIGHTENFACTOR0 0.0000
-1.9138 <s> {\*\EXPANDEDCOLORTBL;;\CSSRGB\C0\C0\C0;\CSSRGB\C35294\C0\C0;} 0.0000
-1.9138 <s> {\COLORTBL;\RED255\GREEN255\BLUE255;\RED0\GREEN0\BLUE0;\RED71\GREEN0\BLUE1;} 0.0000
-1.9138 <s> {\RTF1\ANSI\ANSICPG1252\COCOARTF2513 0.0000
-0.3010 ALHATORAH \ 0.0000
-0.3010 ARIALMT;} </s> -0.3010
-0.3010 ART\ </s> -0.3010
-0.3010 ARUKH\ </s> -0.3010
-0.6021 COMMENTATORS MAP\ 0.0000
-0.6021 COMMENTATORS TIMELINE} 0.0000
-0.3010 CONCORDANCE\ </s> -0.3010
-0.3010 DAF YOMI\ 0.0000
-0.3010 FULL LIBRARY\ 0.0000
-0.3010 GADOL\ </s> -0.3010
-0.3010 GEDOLAH\CF2 \ 0.0000
-0.3010 GEDOLOT\ </s> -0.3010
-0.3010 GEDOLOT\CF2 \ 0.0000
-0.3010 HAGGADAH\ </s> -0.3010
-0.3010 HALAKHAH\ </s> -0.3010
-0.3010 HASHAVUA\ </s> -0.3010
-0.3010 IN ART\ 0.0000
-0.3010 LAB\ </s> -0.3010
-0.3010 LIBRARY\ </s> -0.3010
-0.3010 MAP\ </s> -0.3010
-0.3010 MIKRAOT GEDOLOT\CF2 0.0000
-0.3010 MISHNA YOMIT\ 0.0000
-0.3010 MISHNAYOT GEDOLOT\ 0.0000
-0.3010 MISHNA\ </s> -0.3010
-0.3010 NAKH\ </s> -0.3010
-0.3010 OPEN DAF 0.0000
-0.3010 PARASHAH\ </s> -0.3010
-0.3010 PARASHAT HASHAVUA\ 0.0000
-0.6021 PARSHANUT IN 0.0000
-0.6021 PARSHANUT \ 0.0000
-0.3010 POWER SEARCH\ 0.0000
-0.3010 RAMBAM\ </s> -0.3010
-0.3010 RASHI\ </s> -0.3010
-0.3010 SEARCH\ </s> -0.3010
-0.3010 SHABBAT\ </s> -0.3010
-0.3010 SHAS GADOL\ 0.0000
-0.3010 SHULCHAN ARUKH\ 0.0000
-0.3010 SIDDUR\ </s> -0.3010
-0.3010 TALMUD\ </s> -0.3010
-0.3010 TANAKH LAB\ 0.0000
-0.3010 TANAKH\ </s> -0.3010
-0.3010 TIMELINE} </s> -0.3010
-0.3010 TOPICS\ </s> -0.3010
-0.3010 TORAHCASTS\ </s> -0.3010
-0.3010 TORAH\ </s> -0.3010
-0.3010 TOSEFTA GEDOLAH\CF2 0.0000
-0.3010 TUR\ </s> -0.3010
-0.3010 YOMIT\ </s> -0.3010
-0.3010 YOMI\ </s> -0.3010
-0.3010 \ </s> -0.3010
-0.3010 \CF2 OPEN 0.0000
-0.7782 \CF3 PARASHAT 0.0000
-0.7782 \CF3 SHAS 0.0000
-0.7782 \CF3 TANAKH\ 0.0000
-0.3010 \COCOATEXTSCALING0\COCOAPLATFORM0{\FONTTBL\F0\FSWISS\FCHARSET0 ARIALMT;} 0.0000
-0.3010 \DEFTAB20 </s> -0.3010
-0.3010 \F0\FS24 \CF2 0.0000
-0.3010 \MARGL1440\MARGR1440\VIEWW10800\VIEWH8400\VIEWKIND0 </s> -0.3010
-0.3010 \PARD\PARDEFTAB720\PARTIGHTENFACTOR0 </s> -0.3010
-0.3010 \PARD\TX720\TX1440\TX2160\TX2880\TX3600\TX4320\TX5040\TX5760\TX6480\TX7200\TX7920\TX8640\PARDEFTAB20\PARTIGHTENFACTOR0 </s> -0.3010
-0.3010 {\*\EXPANDEDCOLORTBL;;\CSSRGB\C0\C0\C0;\CSSRGB\C35294\C0\C0;} </s> -0.3010
-0.3010 {\COLORTBL;\RED255\GREEN255\BLUE255;\RED0\GREEN0\BLUE0;\RED71\GREEN0\BLUE1;} </s> -0.3010
-0.3010 {\RTF1\ANSI\ANSICPG1252\COCOARTF2513 </s> -0.3010

\3-grams:
-0.3010 <s> ALHATORAH \
-0.6021 <s> COMMENTATORS MAP\
-0.6021 <s> COMMENTATORS TIMELINE}
-0.3010 <s> CONCORDANCE\ </s>
-0.3010 <s> DAF YOMI\
-0.3010 <s> FULL LIBRARY\
-0.3010 <s> HAGGADAH\ </s>
-0.3010 <s> HALAKHAH\ </s>
-0.3010 <s> MIKRAOT GEDOLOT\CF2
-0.3010 <s> MISHNA YOMIT\
-0.3010 <s> MISHNAYOT GEDOLOT\
-0.3010 <s> MISHNA\ </s>
-0.3010 <s> NAKH\ </s>
-0.3010 <s> PARASHAH\ </s>
-0.6021 <s> PARSHANUT IN
-0.6021 <s> PARSHANUT \
-0.3010 <s> POWER SEARCH\
-0.3010 <s> RAMBAM\ </s>
-0.3010 <s> RASHI\ </s>
-0.3010 <s> SHABBAT\ </s>
-0.3010 <s> SHULCHAN ARUKH\
-0.3010 <s> SIDDUR\ </s>
-0.3010 <s> TALMUD\ </s>
-0.3010 <s> TANAKH LAB\
-0.3010 <s> TOPICS\ </s>
-0.3010 <s> TORAHCASTS\ </s>
-0.3010 <s> TORAH\ </s>
-0.3010 <s> TOSEFTA GEDOLAH\CF2
-0.3010 <s> TUR\ </s>
-0.7782 <s> \CF3 PARASHAT
-0.7782 <s> \CF3 SHAS
-0.7782 <s> \CF3 TANAKH\
-0.3010 <s> \COCOATEXTSCALING0\COCOAPLATFORM0{\FONTTBL\F0\FSWISS\FCHARSET0 ARIALMT;}
-0.3010 <s> \DEFTAB20 </s>
-0.3010 <s> \F0\FS24 \CF2
-0.3010 <s> \MARGL1440\MARGR1440\VIEWW10800\VIEWH8400\VIEWKIND0 </s>
-0.3010 <s> \PARD\PARDEFTAB720\PARTIGHTENFACTOR0 </s>
-0.3010 <s> \PARD\TX720\TX1440\TX2160\TX2880\TX3600\TX4320\TX5040\TX5760\TX6480\TX7200\TX7920\TX8640\PARDEFTAB20\PARTIGHTENFACTOR0 </s>
-0.3010 <s> {\*\EXPANDEDCOLORTBL;;\CSSRGB\C0\C0\C0;\CSSRGB\C35294\C0\C0;} </s>
-0.3010 <s> {\COLORTBL;\RED255\GREEN255\BLUE255;\RED0\GREEN0\BLUE0;\RED71\GREEN0\BLUE1;} </s>
-0.3010 <s> {\RTF1\ANSI\ANSICPG1252\COCOARTF2513 </s>
-0.3010 ALHATORAH \ </s>
-0.3010 COMMENTATORS MAP\ </s>
-0.3010 COMMENTATORS TIMELINE} </s>
-0.3010 DAF YOMI\ </s>
-0.3010 FULL LIBRARY\ </s>
-0.3010 GEDOLAH\CF2 \ </s>
-0.3010 GEDOLOT\CF2 \ </s>
-0.3010 IN ART\ </s>
-0.3010 MIKRAOT GEDOLOT\CF2 \
-0.3010 MISHNA YOMIT\ </s>
-0.3010 MISHNAYOT GEDOLOT\ </s>
-0.3010 OPEN DAF YOMI\
-0.3010 PARASHAT HASHAVUA\ </s>
-0.3010 PARSHANUT IN ART\
-0.3010 PARSHANUT \ </s>
-0.3010 POWER SEARCH\ </s>
-0.3010 SHAS GADOL\ </s>
-0.3010 SHULCHAN ARUKH\ </s>
-0.3010 TANAKH LAB\ </s>
-0.3010 TOSEFTA GEDOLAH\CF2 \
-0.3010 \CF2 OPEN DAF
-0.3010 \CF3 PARASHAT HASHAVUA\
-0.3010 \CF3 SHAS GADOL\
-0.3010 \CF3 TANAKH\ </s>
-0.3010 \COCOATEXTSCALING0\COCOAPLATFORM0{\FONTTBL\F0\FSWISS\FCHARSET0 ARIALMT;} </s>
-0.3010 \F0\FS24 \CF2 OPEN

\end\